svm_type c_svc
kernel_type rbf
gamma 0.00195312
nr_class 2
total_sv 32
rho -1.80312
label 0 1
nr_sv 14 18
SV
73.30728693315535 0:1.8111306 1:0.40591944 2:-0.28240533 3:-0.81639857 4:-1.0930672 5:-0.70383154 6:-0.78450578 7:-0.703993 8:-0.20504487 9:-0.27909957 10:-0.066586949 11:-0.23251517 12:-0.43469425 13:-0.066196398 14:-0.55203799 15:0.51124422 16:-0.24513686 17:-1.5667603 18:-1.0212985 19:-0.56104038 20:-0.35344939 21:-0.98106396 
999 0:-0.89551155 1:-0.2804853 2:-0.39504731 3:-0.72281714 4:-0.42834126 5:-0.78841734 6:-0.61314034 7:-0.78718131 8:-0.76105613 9:-0.77696303 10:-0.92532979 11:-0.66308239 12:-0.38203195 13:-0.92535786 14:-0.51274842 15:0.54102358 16:1.0212104 17:-1.0992103 18:0.1660923 19:-1.0670301 20:-0.83135073 21:0.17937278 
999 0:-0.89320925 1:-0.77210033 2:-0.13306839 3:-0.64188186 4:-0.42834126 5:-0.64039219 6:-0.52086665 7:-0.64054428 8:-0.65979164 9:-0.66018024 10:-0.6860838 11:-0.63246866 12:-0.65286662 13:-0.68571731 14:-0.62087869 15:1.0194623 16:-1.3155941 17:0.85187352 18:-0.24569145 19:-1.3923818 20:-0.97736674 21:-0.30979394 
999 0:-1.0207158 1:-0.92941755 2:-0.32607213 3:-0.61658958 4:-0.42834126 5:-0.6361629 6:-0.57798846 7:-0.63631437 8:-0.81137389 9:-0.79540242 10:-0.82477713 11:-0.70258397 12:-0.68747327 13:-0.82518657 14:-0.61584157 15:1.1196292 16:-1.2382071 17:1.0832569 18:-0.31234051 19:-0.29579582 20:-1.2906194 21:-0.31318847 
999 0:0.93916995 1:0.13046913 2:-0.53030947 3:0.5139752 4:-0.095978287 5:0.71720991 6:0.51171998 7:0.71725824 8:-0.37549629 9:-0.45120052 10:-0.21799383 11:-0.38459625 12:-0.57161622 13:-0.21837971 14:-0.31126345 15:-0.6723009 16:-1.2073627 17:0.17065753 18:0.026151215 19:-0.66316711 20:1.3987021 21:0.038849321 
959.6496678931227 0:-0.6310861 1:-0.68026318 2:0.15345399 3:-0.41425136 4:-0.42834126 5:-0.77572947 6:-0.72738397 7:-0.77590154 8:-0.30001965 9:-0.32212481 10:-0.16713961 11:-0.58210415 12:-0.39256441 13:-0.16713824 14:-0.59871535 15:0.66235603 16:-0.34521401 17:0.90493621 18:-1.270066 19:0.074385569 20:-1.065135 21:-0.98527954 
999 0:-0.95354295 1:-0.9004217 2:-0.39657718 3:-0.63429417 4:-0.42834126 5:-0.63193361 6:-0.5648065 7:-0.63067448 8:-0.81892155 9:-0.79540242 10:-0.83171179 11:-0.74702325 12:-0.79054091 13:-0.83135096 14:-0.59972277 15:1.1188909 16:-1.128272 17:0.91382179 18:-0.17446753 19:-0.29876424 20:-1.3893187 21:-0.24548182 
999 0:-0.91596135 1:-0.83250664 2:-0.14041175 3:-0.67729104 4:-0.42834126 5:-0.6784558 6:-0.58238244 7:-0.67861351 8:-0.79942342 9:-0.77081657 10:-0.75774202 11:-0.71937214 12:-0.80182569 13:-0.75776359 14:-0.62558001 15:0.98549904 16:-0.87479963 17:0.81627745 18:-0.19705849 19:-0.22240336 20:-1.0582049 21:-0.19168414 
999 0:-0.76229439 1:-0.77645072 2:0.01543806 3:-0.19167933 4:-0.095978287 5:-0.64039219 6:-0.5648065 7:-0.64054428 8:-0.7302365 9:-0.73393779 10:-0.70804358 11:-0.87441584 12:-0.57613013 13:-0.70767794 14:-0.47849598 15:0.28580705 16:0.83490267 17:0.32190948 18:-0.65572833 19:0.68070783 20:-0.77378785 21:-0.80686488 
800.7217524367861 0:1.0340832 1:0.58975675 2:-0.80494259 3:0.23828938 4:-0.42834126 5:0.38732528 6:0.28323273 7:0.38591494 8:-0.1257944 9:-0.045533997 10:-0.015732729 11:-0.078459005 12:-0.33162661 13:-0.015340203 14:0.73108549 15:-0.64793597 16:0.13452014 17:-0.57198721 18:-1.1361924 19:-0.72436928 20:-0.13377433 21:-1.0645668 
382.6143341169548 0:0.41142506 1:0.26649284 2:-0.45453731 3:-0.35607913 4:-0.42834126 5:-0.24283893 6:-0.31874331 7:-0.24152236 8:0.82584024 9:0.87643537 10:1.0036632 11:0.82612718 12:0.41091177 13:1.0037101 14:0.16793499 15:-0.61126551 16:-0.45676429 17:-1.0352915 18:-0.75198883 19:-1.224884 20:0.78968441 21:-0.81687688 
999 0:1.4959418 1:0.27023194 2:1.97651 3:-0.84422007 4:-1.0930672 5:-0.71229012 6:-0.82405165 7:-0.71104285 8:-0.71136734 9:-0.72164487 10:-0.69417425 11:-0.54655273 12:-0.75142035 13:-0.69380807 14:-0.64606432 15:0.94882858 16:-1.279796 17:-0.38141297 18:-1.1670994 19:-1.5688246 20:-0.23571944 21:-1.1823825 
180.8178515635457 0:2.1780308 1:0.57732705 2:1.480199 3:-1.0490875 4:-1.1927761 5:-0.96604752 6:-0.96026521 7:-0.96624769 8:-1.0201926 9:-0.97979629 10:-0.98658601 11:-0.91984266 12:-1.0072086 13:-0.98700173 14:-0.61516995 15:1.1823874 16:1.137931 17:-1.4418606 18:-1.5098642 19:-0.18368201 20:-0.912687 21:-1.3885783 
33.87936642929113 0:-0.88941724 1:3.9449914 2:-0.63010056 3:-0.2624977 4:-0.095978287 5:-0.28090254 6:-0.30116736 7:-0.28100156 8:-0.70067482 9:-0.66632671 10:-0.7484958 11:-0.6808581 12:-0.53249566 13:-0.74851701 14:-0.29111495 15:0.48171096 16:0.70517266 17:-0.86053572 18:-0.64769368 19:-0.81117898 20:-0.55177118 21:-0.96938533 
-999 0:-0.1287116 1:-0.51157584 2:-0.86786386 3:-0.88974617 4:-0.76070423 5:-0.91106675 6:-0.85920354 7:-0.9112588 8:-1.033401 9:-0.95521044 10:-1.0929176 11:-0.98995796 12:-0.89511319 13:-1.0925669 14:-0.59401403 15:1.1710663 16:-1.9492651 17:0.11942212 18:-1.0817666 19:-1.656096 20:-0.97916423 21:-1.0510377 
-575.1602607769709 0:-0.80992031 1:-0.79661333 2:-0.20525629 3:-0.83410316 4:-0.76070423 5:-0.86454456 6:-0.86359753 7:-0.86331977 8:-1.101959 9:-1.0597003 10:-1.1460833 11:-1.0600733 12:-0.97485895 13:-1.14612 14:-0.5967005 15:1.0750832 16:-0.03421849 17:0.0564169 18:-0.12454576 19:-0.24828796 20:-0.69541581 21:-0.19775017 
-18.68513415414695 0:1.176487 1:0.49892824 2:-0.50827938 3:0.39763073 4:-0.095978287 5:0.45499392 6:0.42384027 7:0.45641352 8:2.4850684 9:1.8967481 10:2.9453698 11:2.3123741 12:1.7041473 13:2.9451067 14:0.66291641 15:-1.5634668 16:1.0983118 17:-0.89115157 18:0.34296132 19:0.97787936 20:0.81041236 21:0.3923209 
-317.6859425350866 0:-0.40212052 1:-0.077259696 2:-0.74186833 3:-0.14109477 4:-0.095978287 5:-0.11173094 6:-0.019952282 7:-0.11039501 8:0.010692524 9:-0.10085216 10:0.018940602 11:0.1417623 12:0.045284969 13:0.018563926 14:-0.15779906 15:-0.94080739 16:1.2644013 17:0.40406529 18:0.21678366 19:-1.6838276 20:-1.4739008 21:0.17605178 
-482.9221208522553 0:1.0573545 1:0.27189263 2:-0.63001314 3:-0.58118039 4:-0.76070423 5:-0.55580639 6:-0.52965462 7:-0.55453602 8:-0.48871125 9:-0.50651868 10:-0.40522982 11:-0.4784125 12:-0.52121088 13:-0.40562297 14:-0.085264467 15:-0.81553718 16:0.40655629 17:-1.4879545 18:-0.13096261 19:-0.019033813 20:0.28419544 21:-0.13084007 
-9.295626652729794 0:-0.60989143 1:2.8005114 2:-0.58588738 3:-0.047513349 4:0.23638469 5:-0.33588331 6:-0.077074095 7:-0.33599044 8:-0.48179256 9:-0.25451372 10:-0.71497825 11:-0.53766487 12:-0.34968226 13:-0.71461288 14:0.028910353 15:0.67490766 16:-0.06956359 17:-0.56537676 18:-0.40993349 19:0.85935377 20:0.86755023 21:-0.57940731 
-999 0:-1.290107 1:-1.0444636 2:-0.59565668 3:-0.42436828 4:-0.095978287 5:-0.31050757 6:-0.32313729 7:-0.30920099 8:-0.34656358 9:-0.37129651 10:-0.22030538 11:-0.31448095 12:-0.48660423 13:-0.22030608 14:-0.46405622 15:0.059877666 16:0.80582101 17:1.016221 18:-0.25391729 19:-1.8020762 20:-0.84504033 21:-0.27491736 
-290.1341108232494 0:-0.8335527 1:-0.78743369 2:-0.12769199 3:-0.40413445 4:-0.095978287 5:-0.45007414 6:-0.61314034 7:-0.4516081 8:-1.0950403 9:-1.0105286 10:-1.0744251 11:-1.077849 12:-1.0440723 13:-1.074459 14:-0.18130564 15:1.1914935 16:-0.3671262 17:-0.28488976 18:-1.0930514 19:-0.81604719 20:-0.10083756 21:-1.0643462 
-672.4575604542596 0:0.1491439 1:-0.065971082 2:-0.81801203 3:-0.24732234 4:-0.42834126 5:-0.170941 6:-0.34510722 7:-0.16961381 8:-0.61827948 9:-0.58027623 10:-0.7797018 11:-0.59691724 12:-0.30078155 13:-0.77933894 14:-0.36734343 15:0.90502092 16:-0.6601685 17:0.14523689 18:-0.8462647 19:-0.06503768 20:-1.1039434 21:-0.79001481 
-901.7635686506719 0:1.1863282 1:0.15785522 2:1.8349972 3:0.023305027 4:-0.42834126 5:0.20123652 6:0.032775546 7:0.20261865 8:-0.63714864 9:-0.66018024 10:-0.59593314 11:-0.5959297 12:-0.67092227 13:-0.5963337 14:-0.48151825 15:0.099993668 16:-1.5434316 17:-0.057752077 18:-0.686812 19:-0.40129996 20:0.36971141 21:-0.77594653 
-426.5802564273796 0:0.54707994 1:-0.036394508 2:1.32 3:-0.79869397 4:-0.76070423 5:-0.70806083 6:-0.72738397 7:-0.70822291 8:-0.83653277 9:-0.80769534 10:-0.8571389 11:-0.76677404 12:-0.75894353 13:-0.8575496 14:-0.68266742 15:1.165898 16:-0.89554974 17:0.90502579 18:-0.66801467 19:-0.033005163 20:-0.2608653 21:-0.70806832 
-156.2488448425279 0:-0.092281158 1:2.9349458 2:-1.0047652 3:0.64802427 4:0.56874766 5:0.35349096 6:0.23489889 7:0.35207563 8:-0.58557294 9:-0.16846325 10:-0.77623446 11:-0.81911363 12:-0.69800573 13:-0.77587147 14:1.2717368 15:0.4164917 16:-0.85795926 17:-0.94985732 18:1.0583013 19:0.61681431 20:0.91117447 21:0.91539608 
-999 0:-0.1415548 1:-0.45290155 2:0.40540135 3:-0.86698312 4:-0.76070423 5:-0.86454456 6:-0.86799151 7:-0.86331977 8:-0.89817203 9:-0.83842765 10:-0.93342023 11:-0.83293918 12:-0.85749726 13:-0.9338339 14:-0.56614194 15:1.3339914 16:-1.2736803 17:0.076749834 18:-1.197264 19:-0.059588986 20:-1.0053361 21:-1.0640766 
-986.6807518868834 0:0.07122699 1:-0.3658427 2:0.65024575 3:-0.65199877 4:-0.76070423 5:-0.60232858 6:-0.64829223 7:-0.60106508 8:0.38178601 9:0.27408205 10:0.39110103 11:0.35803345 12:0.45906016 13:0.3907388 14:-0.47413047 15:0.16299794 16:-1.265398 17:-0.39879002 18:-0.63441841 19:-0.26608527 20:0.29094414 21:-0.58821837 
-652.6441388823528 0:0.006288704 1:-0.098970918 2:-0.77014903 3:0.23828938 4:-0.095978287 5:0.34926167 6:0.27883874 7:0.34925569 8:-0.27108693 9:-0.23607433 10:-0.20643605 11:-0.2384404 12:-0.36021472 13:-0.20643621 14:-0.081906384 15:-0.69026696 16:1.2196315 17:0.22807344 18:-0.17513716 19:-0.94246217 20:-1.1804069 21:-0.21716145 
-999 0:-0.83996302 1:-0.82625103 2:-0.11414174 3:-0.67982027 4:-0.42834126 5:-0.64462148 6:-0.70541404 7:-0.6447742 8:-1.0887505 9:-1.0043821 10:-1.1299024 11:-1.0274845 12:-0.97485895 13:-1.1295532 14:-0.59099176 15:0.89050041 16:-0.12333463 17:0.13267884 18:-0.66420649 19:-0.47603811 20:-0.89586263 21:-0.7142814 
-595.1571448972429 0:-1.019497 1:-0.78164675 2:-0.16921698 3:-0.26755616 4:-0.095978287 5:-0.2555268 6:-0.21328765 7:-0.25562207 8:-0.20881871 9:-0.28524603 10:-0.041159839 11:-0.33225666 12:-0.27670736 13:-0.041538849 14:-0.59938696 15:0.84595442 16:-0.56911228 17:1.7953575 18:0.43707511 19:-0.17064736 20:-0.37884701 21:0.54904493 
-341.5747975370987 0:-1.0214381 1:-0.8375804 2:-0.21968076 3:-0.21191315 4:0.23638469 5:-0.18362887 6:-0.18692374 7:-0.18371353 8:-0.35159535 9:-0.34671066 10:-0.21221494 11:-0.43693584 12:-0.36397631 13:-0.21260059 14:-0.60173762 15:0.7866418 16:-0.30830305 17:1.6396628 18:0.27769036 19:1.3229677 20:-1.3634663 21:0.3543439 
