svm_type c_svc
kernel_type rbf
gamma 0.00195312
nr_class 2
total_sv 63
rho 0.382413
label 0 1
nr_sv 23 40
SV
1.343422906931443 0:236.2 1:244.663 2:102.137 3:0.00277 4:1e-05 5:0.00154 6:0.00153 7:0.00462 8:0.02448 9:0.217 10:0.0141 11:0.01426 12:0.01621 13:0.04231 14:0.0062 15:24.078 16:0.469928 17:0.628232 18:-6.816086 19:0.17227 20:2.235197 21:0.119652 
1.701550742188882 0:116.286 1:177.291 2:96.983 3:0.00314 4:3e-05 5:0.00134 6:0.00192 7:0.00403 8:0.01564 9:0.136 10:0.00667 11:0.0099 12:0.01691 13:0.02001 14:0.00737 15:24.199 16:0.598515 17:0.654331 18:-5.592584 19:0.133917 20:2.058658 21:0.214346 
8 0:116.388 1:129.038 2:108.97 3:0.00346 4:3e-05 5:0.00169 6:0.00213 7:0.00507 8:0.01725 9:0.155 10:0.00874 11:0.01021 12:0.01331 13:0.02623 14:0.00415 15:26.143 16:0.361232 17:0.763242 18:-6.016891 19:0.109256 20:2.004719 21:0.174429 
1.382643546512923 0:198.764 1:396.961 2:74.904 3:0.0074 4:4e-05 5:0.0037 6:0.0039 7:0.01109 8:0.02296 9:0.241 10:0.01265 11:0.01321 12:0.01588 13:0.03794 14:0.07223 15:19.02 16:0.451221 17:0.643956 18:-6.744577 19:0.207454 20:2.138608 21:0.123306 
1.518217708933961 0:110.739 1:113.597 2:100.139 3:0.00356 4:3e-05 5:0.0017 6:0.002 7:0.0051 8:0.01484 9:0.133 10:0.00754 11:0.0095 12:0.01285 13:0.02261 14:0.0043 15:26.55 16:0.36909 17:0.776158 18:-6.085567 19:0.192375 20:1.889002 21:0.174152 
1.111107824400324 0:244.99 1:272.21 2:239.17 3:0.00451 4:2e-05 5:0.00279 6:0.00237 7:0.00837 8:0.01897 9:0.181 10:0.01084 11:0.01121 12:0.01255 13:0.03253 14:0.01049 15:21.528 16:0.522812 17:0.646818 18:-7.3045 19:0.171088 20:2.095237 21:0.09622 
7.738482753888491 0:197.569 1:217.627 2:90.794 3:0.00803 4:4e-05 5:0.0049 6:0.00448 7:0.0147 8:0.02177 9:0.189 10:0.01279 11:0.01272 12:0.01439 13:0.03836 14:0.01337 15:19.269 16:0.372222 17:0.725216 18:-5.736781 19:0.164529 20:2.88245 21:0.202879 
0.5995298816829576 0:243.439 1:250.912 2:232.435 3:0.0021 4:9e-06 5:0.00109 6:0.00137 7:0.00327 8:0.01419 9:0.126 10:0.00777 11:0.00898 12:0.01033 13:0.0233 14:0.00454 15:25.368 16:0.438296 17:0.635285 18:-7.057869 19:0.091608 20:2.330716 21:0.09147 
3.472986552780332 0:128.001 1:138.052 2:122.08 3:0.00436 4:3e-05 5:0.00137 6:0.00166 7:0.00411 8:0.02297 9:0.21 10:0.01323 11:0.01072 12:0.01677 13:0.03969 14:0.00481 15:24.692 16:0.459766 17:0.766204 18:-7.072419 19:0.220434 20:1.972297 21:0.119308 
8 0:113.715 1:116.443 2:96.913 3:0.00349 4:3e-05 5:0.00171 6:0.00203 7:0.00514 8:0.01472 9:0.133 10:0.00748 11:0.00905 12:0.01148 13:0.02245 14:0.00478 15:26.547 16:0.380253 17:0.7667 18:-5.943501 19:0.19215 20:1.852542 21:0.179677 
8 0:115.38 1:123.109 2:108.634 3:0.00332 4:3e-05 5:0.0016 6:0.00199 7:0.0048 8:0.01503 9:0.137 10:0.00812 11:0.00933 12:0.01133 13:0.02436 14:0.00401 15:26.005 16:0.405991 17:0.761255 18:-5.966779 19:0.197938 20:1.974857 21:0.184067 
1.054295860813813 0:228.969 1:239.541 2:113.201 3:0.00238 4:1e-05 5:0.00136 6:0.0014 7:0.00408 8:0.01745 9:0.154 10:0.00942 11:0.0116 12:0.01234 13:0.02827 14:0.0042 15:24.547 16:0.305429 17:0.681811 18:-7.314237 19:0.006274 20:2.118596 21:0.091546 
0.1037493225627726 0:229.401 1:252.221 2:221.156 3:0.00205 4:9e-06 5:0.00114 6:0.00113 7:0.00342 8:0.01457 9:0.129 10:0.00769 11:0.00957 12:0.01016 13:0.02308 14:0.003 15:26.415 16:0.27685 17:0.673636 18:-7.496264 19:0.056844 20:2.003032 21:0.073581 
0.8129888891668978 0:116.342 1:581.289 2:94.246 3:0.00267 4:2e-05 5:0.00115 6:0.00148 7:0.00345 8:0.013 9:0.117 10:0.00631 11:0.00789 12:0.01144 13:0.01892 14:0.0068 15:25.023 16:0.528485 17:0.663884 18:-6.359018 19:0.116636 20:2.152083 21:0.138868 
3.476342550642669 0:198.383 1:215.203 2:193.104 3:0.00212 4:1e-05 5:0.00113 6:0.00135 7:0.00339 8:0.01263 9:0.111 10:0.0064 11:0.00825 12:0.00951 13:0.01919 14:0.00119 15:30.775 16:0.465946 17:0.738703 18:-7.067931 19:0.175181 20:1.512275 21:0.09632 
8 0:122.188 1:128.611 2:115.765 3:0.00524 4:4e-05 5:0.00169 6:0.00203 7:0.00507 8:0.01613 9:0.143 10:0.00855 11:0.00776 12:0.01433 13:0.02566 14:0.00839 15:23.162 16:0.579597 17:0.733659 18:-6.439398 19:0.266392 20:2.079922 21:0.133867 
0.2139469831310896 0:237.323 1:243.709 2:229.256 3:0.00303 4:1e-05 5:0.00173 6:0.00159 7:0.00519 8:0.01242 9:0.116 10:0.00696 11:0.00747 12:0.00882 13:0.02089 14:0.00533 15:24.679 16:0.384868 17:0.62671 18:-7.018057 19:0.176316 20:1.852402 21:0.091604 
2.597144533988789 0:201.774 1:262.707 2:78.228 3:0.00694 4:3e-05 5:0.00412 6:0.00396 7:0.01235 8:0.02574 9:0.255 10:0.01454 11:0.01582 12:0.01758 13:0.04363 14:0.04441 15:19.368 16:0.508479 17:0.683761 18:-6.934474 19:0.15989 20:2.316346 21:0.112838 
1.199574572317798 0:174.188 1:230.978 2:94.261 3:0.00459 4:3e-05 5:0.00263 6:0.00259 7:0.0079 8:0.04087 9:0.405 10:0.02336 11:0.02498 12:0.02745 13:0.07008 14:0.02764 15:19.517 16:0.448439 17:0.657899 18:-6.538586 19:0.121952 20:2.657476 21:0.13305 
3.08092357929244 0:222.236 1:231.345 2:205.495 3:0.00266 4:1e-05 5:0.00152 6:0.00144 7:0.00457 8:0.01643 9:0.145 10:0.00867 11:0.01108 12:0.012 13:0.02602 14:0.0034 15:25.856 16:0.364867 17:0.694399 18:-6.966321 19:0.095882 20:2.278687 21:0.103224 
1.348554336208344 0:252.455 1:261.487 2:182.786 3:0.00185 4:7e-06 5:0.00092 6:0.00113 7:0.00276 8:0.01152 9:0.103 10:0.00614 11:0.0073 12:0.0086 13:0.01841 14:0.00432 15:26.805 16:0.610367 17:0.635204 18:-7.31951 19:0.200873 20:2.028612 21:0.086398 
1.043465456292678 0:203.184 1:211.526 2:196.16 3:0.00178 4:9e-06 5:0.00094 6:0.00106 7:0.00283 8:0.00958 9:0.085 10:0.00468 11:0.0061 12:0.00726 13:0.01403 14:0.00065 15:33.047 16:0.340068 17:0.741899 18:-7.964984 19:0.163519 20:1.423287 21:0.044539 
0.8113381179913713 0:116.556 1:592.03 2:86.228 3:0.00496 4:4e-05 5:0.00254 6:0.00263 7:0.00762 8:0.0166 9:0.154 10:0.0082 11:0.00972 12:0.01491 13:0.0246 14:0.01397 15:23.958 16:0.566424 17:0.667654 18:-6.431119 19:0.15331 20:2.161936 21:0.120605 
-5.784164000498284 0:120.552 1:131.162 2:113.787 3:0.00968 4:8e-05 5:0.00463 6:0.0075 7:0.01388 8:0.04701 9:0.456 10:0.02328 11:0.03526 12:0.03243 13:0.06985 14:0.01222 15:21.378 16:0.415564 17:0.825069 18:-4.242867 19:0.299111 20:2.18756 21:0.357775 
-0.0930067226294089 0:138.19 1:203.522 2:83.34 3:0.00704 4:5e-05 5:0.00406 6:0.00398 7:0.01218 8:0.04479 9:0.441 10:0.02587 11:0.02567 12:0.0322 13:0.07761 14:0.01968 15:18.305 16:0.538016 17:0.74148 18:-5.418787 19:0.160267 20:2.090438 21:0.229892 
-0.9282593110764005 0:148.143 1:155.982 2:135.041 3:0.00392 4:3e-05 5:0.00204 6:0.00231 7:0.00612 8:0.0145 9:0.131 10:0.00725 11:0.00876 12:0.01263 13:0.02175 14:0.0054 15:23.683 16:0.398499 17:0.778349 18:-5.711205 19:0.240875 20:2.845109 21:0.19273 
-2.126258254308073 0:125.036 1:143.946 2:116.187 3:0.0128 4:0.0001 5:0.00743 6:0.00623 7:0.02228 8:0.03886 9:0.342 10:0.02135 11:0.02174 12:0.03088 13:0.06406 14:0.08151 15:15.338 16:0.629574 17:0.714485 18:-4.020042 19:0.265315 20:2.671825 21:0.340623 
-0.3372764034160749 0:150.258 1:154.609 2:75.349 3:0.00248 4:2e-05 5:0.00105 6:0.00136 7:0.00315 8:0.01131 9:0.107 10:0.00522 11:0.00659 12:0.01009 13:0.01567 14:0.00495 15:26.759 16:0.296888 17:0.722356 18:-6.878393 19:0.089267 20:2.004055 21:0.113942 
-0.6410329149536608 0:210.141 1:232.706 2:185.258 3:0.00534 4:3e-05 5:0.00321 6:0.0028 7:0.00964 8:0.0168 9:0.149 10:0.00861 11:0.01017 12:0.01301 13:0.02583 14:0.0062 15:23.671 16:0.441097 17:0.722254 18:-5.96304 19:0.250283 20:2.489191 21:0.177807 
-0.3445074000049787 0:139.173 1:179.139 2:76.556 3:0.0039 4:3e-05 5:0.00165 6:0.00208 7:0.00496 8:0.01642 9:0.154 10:0.00728 11:0.00932 12:0.01797 13:0.02184 14:0.01041 15:24.889 16:0.430166 17:0.665833 18:-5.660217 19:0.254989 20:2.519422 21:0.199889 
-0.9554512759719519 0:170.368 1:268.796 2:79.543 3:0.00571 4:3e-05 5:0.00232 6:0.00269 7:0.00696 8:0.03273 9:0.281 10:0.01713 11:0.01964 12:0.02824 13:0.05139 14:0.02485 15:18.54 16:0.677131 17:0.685057 18:-4.796845 19:0.397749 20:2.963799 21:0.277227 
-0.129239553608536 0:136.358 1:176.595 2:65.75 3:0.00971 4:7e-05 5:0.00534 6:0.00478 7:0.01601 8:0.04978 9:0.483 10:0.02749 11:0.02466 12:0.03736 13:0.08247 14:0.03361 15:18.57 16:0.543299 17:0.733232 18:-5.207985 19:0.224852 20:2.642276 21:0.242981 
-0.9912394744278361 0:208.083 1:253.792 2:91.802 3:0.00757 4:4e-05 5:0.00428 6:0.00428 7:0.01285 8:0.06725 9:0.571 10:0.04016 11:0.04003 12:0.04464 13:0.12047 14:0.04238 15:15.648 16:0.606344 17:0.665945 18:-5.410336 19:0.288917 20:2.665133 21:0.231723 
-0.9139416663851312 0:100.77 1:115.697 2:85.545 3:0.01038 4:0.0001 5:0.00622 6:0.00576 7:0.01865 8:0.03121 9:0.361 10:0.01773 11:0.01783 12:0.02139 13:0.0532 14:0.0222 15:19.2 16:0.594387 17:0.790117 18:-4.913885 19:0.265699 20:2.398422 21:0.277948 
-0.6110635730942745 0:158.219 1:442.557 2:71.948 3:0.00476 4:3e-05 5:0.00214 6:0.00207 7:0.00642 8:0.01458 9:0.148 10:0.00606 11:0.00747 12:0.01312 13:0.01818 14:0.01554 15:26.356 16:0.450798 17:0.653823 18:-6.051233 19:0.27328 20:2.640798 21:0.170106 
-0.8603896277363611 0:120.256 1:125.306 2:104.773 3:0.00407 4:3e-05 5:0.00224 6:0.00205 7:0.00671 8:0.01516 9:0.138 10:0.00721 11:0.00815 12:0.0131 13:0.02164 14:0.01015 15:26.017 16:0.468621 17:0.735136 18:-6.112667 19:0.217013 20:2.527742 21:0.170633 
-0.1735331269015035 0:198.116 1:233.099 2:174.478 3:0.02714 4:0.00014 5:0.01568 6:0.01699 7:0.04705 8:0.08684 9:1.018 10:0.04284 11:0.05556 12:0.08318 13:0.12851 14:0.16265 15:9.449 16:0.584164 17:0.754449 18:-2.839756 19:0.356224 20:3.184027 21:0.454721 
-0.6172533892997634 0:202.632 1:565.74 2:177.258 3:0.01627 4:8e-05 5:0.00919 6:0.00963 7:0.02756 8:0.0717 9:0.833 10:0.03515 11:0.04265 12:0.0646 13:0.10546 14:0.07889 15:14.989 16:0.427627 17:0.775708 18:-4.892495 19:0.262281 20:2.910213 21:0.270173 
-0.109403082392624 0:180.978 1:200.125 2:155.495 3:0.00406 4:2e-05 5:0.0022 6:0.00244 7:0.00659 8:0.03852 9:0.331 10:0.02107 11:0.02493 12:0.02877 13:0.06321 14:0.02782 15:16.176 16:0.583574 17:0.727747 18:-5.657899 19:0.315903 20:3.098256 21:0.200423 
-0.4208668237076369 0:198.458 1:219.29 2:148.691 3:0.00376 4:2e-05 5:0.00182 6:0.00215 7:0.00546 8:0.03527 9:0.297 10:0.02055 11:0.02076 12:0.0253 13:0.06165 14:0.01728 15:18.702 16:0.606273 17:0.661735 18:-5.585259 19:0.310746 20:2.465528 21:0.209863 
-0.3073802437480037 0:138.145 1:197.238 2:81.114 3:0.00544 4:4e-05 5:0.00294 6:0.00327 7:0.00883 8:0.02791 9:0.246 10:0.01484 11:0.01805 12:0.02259 13:0.04451 14:0.01794 15:18.178 16:0.623209 17:0.738245 18:-5.540351 19:0.087165 20:1.821297 21:0.214075 
-0.4726825487414776 0:119.992 1:157.302 2:74.997 3:0.00784 4:7e-05 5:0.0037 6:0.00554 7:0.01109 8:0.04374 9:0.426 10:0.02182 11:0.0313 12:0.02971 13:0.06545 14:0.02211 15:21.033 16:0.414783 17:0.815285 18:-4.813031 19:0.266482 20:2.301442 21:0.284654 
-0.2867535628283445 0:202.805 1:231.508 2:86.232 3:0.0037 4:2e-05 5:0.00189 6:0.00211 7:0.00568 8:0.01997 9:0.18 10:0.01117 11:0.01177 12:0.01506 13:0.0335 14:0.0201 15:18.687 16:0.536102 17:0.632631 18:-5.898673 19:0.213353 20:2.470746 21:0.189032 
-0.5455769146615033 0:128.94 1:479.697 2:88.251 3:0.00581 4:5e-05 5:0.00241 6:0.00314 7:0.00723 8:0.02008 9:0.221 10:0.00849 11:0.01117 12:0.01734 13:0.02548 14:0.0235 15:24.743 16:0.487756 17:0.68413 18:-6.186128 19:0.279933 20:2.68624 21:0.152428 
-1.934140513313838 0:98.804 1:102.305 2:87.804 3:0.00432 4:4e-05 5:0.00247 6:0.00258 7:0.00742 8:0.02223 9:0.202 10:0.01277 11:0.01343 12:0.01552 13:0.03831 14:0.00882 15:22.244 16:0.576644 17:0.772416 18:-6.025367 19:0.078202 20:2.053601 21:0.177275 
-8 0:119.031 1:127.533 2:109.216 3:0.0044 4:4e-05 5:0.00214 6:0.00192 7:0.00641 8:0.01033 9:0.098 10:0.00538 11:0.0057 12:0.00811 13:0.01614 14:0.01724 15:26.842 16:0.457541 17:0.699787 18:-6.890021 19:0.152941 20:2.328513 21:0.112856 
-0.8636026297409336 0:155.358 1:227.383 2:80.055 3:0.0031 4:2e-05 5:0.00159 6:0.00176 7:0.00476 8:0.01718 9:0.161 10:0.00769 11:0.01012 12:0.01661 13:0.02307 14:0.00677 15:25.97 16:0.470478 17:0.676258 18:-7.120925 19:0.279789 20:2.241742 21:0.108514 
-0.8372028029766254 0:176.281 1:227.381 2:125.61 3:0.0052 4:3e-05 5:0.00287 6:0.00312 7:0.00862 8:0.06511 9:0.58 10:0.03671 11:0.04159 12:0.04683 13:0.11012 14:0.04824 15:13.922 16:0.602874 17:0.740837 18:-5.515071 19:0.299549 20:3.13655 21:0.220968 
-4.57427471775378 0:208.519 1:220.315 2:199.02 3:0.00609 4:3e-05 5:0.00368 6:0.00339 7:0.01105 8:0.01761 9:0.155 10:0.00952 11:0.01058 12:0.01307 13:0.02855 14:0.0083 15:22.407 16:0.338097 17:0.712466 18:-6.471427 19:0.184378 20:2.502336 21:0.13639 
-0.5458800373217831 0:151.872 1:492.892 2:69.085 3:0.00856 4:6e-05 5:0.00404 6:0.00385 7:0.01211 8:0.01843 9:0.235 10:0.00796 11:0.00832 12:0.01271 13:0.02389 14:0.06051 15:23.693 16:0.407701 17:0.662668 18:-4.673241 19:0.261549 20:2.702355 21:0.274407 
-1.238851695843454 0:223.361 1:263.872 2:87.638 3:0.00352 4:2e-05 5:0.00169 6:0.00188 7:0.00506 8:0.02536 9:0.225 10:0.01379 11:0.01478 12:0.01909 13:0.04137 14:0.01493 15:20.366 16:0.566849 17:0.574282 18:-5.456811 19:0.345238 20:2.840556 21:0.232861 
-0.6169983954902262 0:114.847 1:271.314 2:104.68 3:0.00867 4:8e-05 5:0.00373 6:0.0052 7:0.0112 8:0.03225 9:0.35 10:0.01805 11:0.01974 12:0.02519 13:0.05414 14:0.01143 15:21.66 16:0.547975 17:0.817396 18:-4.609161 19:0.221711 20:1.831691 21:0.316395 
-0.06536548850057049 0:159.116 1:168.913 2:144.811 3:0.00342 4:2e-05 5:0.00178 6:0.00184 7:0.00535 8:0.03381 9:0.307 10:0.01806 11:0.02024 12:0.02809 13:0.05417 14:0.00852 15:22.663 16:0.366329 17:0.693429 18:-6.41744 19:0.194627 20:2.473239 21:0.151709 
-0.1803442650535124 0:166.605 1:206.008 2:78.032 3:0.00742 4:4e-05 5:0.00387 6:0.00453 7:0.01161 8:0.0664 9:0.634 10:0.0365 11:0.04282 12:0.05114 13:0.10949 14:0.08725 15:11.744 16:0.65341 17:0.733165 18:-4.508984 19:0.389232 20:3.317586 21:0.301952 
-1.35317386225789 0:186.163 1:197.724 2:177.584 3:0.00298 4:2e-05 5:0.00165 6:0.00175 7:0.00496 8:0.01495 9:0.135 10:0.00774 11:0.00941 12:0.01233 13:0.02321 14:0.00231 15:26.822 16:0.32648 17:0.765623 18:-6.647379 19:0.201095 20:2.374073 21:0.130554 
-4.239003362763063 0:193.03 1:208.9 2:80.297 3:0.00766 4:4e-05 5:0.0045 6:0.00389 7:0.01351 8:0.03044 9:0.275 10:0.01771 11:0.01815 12:0.02084 13:0.05312 14:0.00947 15:21.934 16:0.497554 17:0.740539 18:-5.845099 19:0.278679 20:2.608749 21:0.185668 
-8 0:118.747 1:123.723 2:109.836 3:0.00331 4:3e-05 5:0.00168 6:0.00171 7:0.00504 8:0.01043 9:0.099 10:0.0049 11:0.00621 12:0.00903 13:0.01471 14:0.00504 15:25.619 16:0.482296 17:0.723096 18:-6.448134 19:0.178713 20:2.034827 21:0.141422 
-0.1327358684730005 0:153.88 1:172.86 2:78.128 3:0.0048 4:3e-05 5:0.00232 6:0.00267 7:0.00696 8:0.04137 9:0.37 10:0.02021 11:0.02591 12:0.04525 13:0.06062 14:0.01849 15:19.493 16:0.629017 17:0.698951 18:-5.18696 19:0.237622 20:2.557536 21:0.259765 
-0.5061922105664377 0:151.737 1:190.204 2:129.859 3:0.00314 4:2e-05 5:0.00135 6:0.00162 7:0.00406 8:0.01469 9:0.132 10:0.00728 11:0.00886 12:0.0123 13:0.02184 14:0.0057 15:24.151 16:0.39661 17:0.745957 18:-6.486822 19:0.197919 20:2.449763 21:0.132703 
-4.965300191233446 0:206.327 1:226.355 2:92.02 3:0.00495 4:2e-05 5:0.00302 6:0.00246 7:0.00905 8:0.02105 9:0.209 10:0.01107 11:0.01284 12:0.01604 13:0.0332 14:0.01048 15:21.864 16:0.331508 17:0.715121 18:-6.729713 19:0.181701 20:2.938114 21:0.115515 
-8 0:110.707 1:122.611 2:105.007 3:0.00516 4:5e-05 5:0.00277 6:0.00289 7:0.00831 8:0.02215 9:0.206 10:0.01284 11:0.01219 12:0.01715 13:0.03851 14:0.00472 15:25.197 16:0.463514 17:0.807217 18:-5.477592 19:0.315074 20:1.862092 21:0.228624 
-0.6922001954796294 0:104.4 1:206.002 2:77.968 3:0.00633 4:6e-05 5:0.00316 6:0.00375 7:0.00948 8:0.03767 9:0.381 10:0.01732 11:0.02245 12:0.0378 13:0.05197 14:0.02887 15:22.066 16:0.522746 17:0.737948 18:-5.571843 19:0.236853 20:2.846369 21:0.219514 
-2.215720012567959 0:119.056 1:125.213 2:86.795 3:0.00346 4:3e-05 5:0.00169 6:0.0017 7:0.00508 8:0.01201 9:0.106 10:0.00633 11:0.00701 12:0.00915 13:0.01898 14:0.00903 15:23.389 16:0.470972 17:0.721308 18:-5.436135 19:0.254909 20:2.51632 21:0.232209 
