svm_type c_svc
kernel_type rbf
gamma 0.125
nr_class 2
total_sv 63
rho 0.466637
label 0 1
nr_sv 21 42
SV
1.81419358385813 0:1.8111306 1:0.40591944 2:-0.28240533 3:-0.81639857 4:-1.0930672 5:-0.70383154 6:-0.78450578 7:-0.703993 8:-0.20504487 9:-0.27909957 10:-0.066586949 11:-0.23251517 12:-0.43469425 13:-0.066196398 14:-0.55203799 15:0.51124422 16:-0.24513686 17:-1.5667603 18:-1.0212985 19:-0.56104038 20:-0.35344939 21:-0.98106396 
5.223568915952785 0:-0.89551155 1:-0.2804853 2:-0.39504731 3:-0.72281714 4:-0.42834126 5:-0.78841734 6:-0.61314034 7:-0.78718131 8:-0.76105613 9:-0.77696303 10:-0.92532979 11:-0.66308239 12:-0.38203195 13:-0.92535786 14:-0.51274842 15:0.54102358 16:1.0212104 17:-1.0992103 18:0.1660923 19:-1.0670301 20:-0.83135073 21:0.17937278 
1.803886728581664 0:-0.89320925 1:-0.77210033 2:-0.13306839 3:-0.64188186 4:-0.42834126 5:-0.64039219 6:-0.52086665 7:-0.64054428 8:-0.65979164 9:-0.66018024 10:-0.6860838 11:-0.63246866 12:-0.65286662 13:-0.68571731 14:-0.62087869 15:1.0194623 16:-1.3155941 17:0.85187352 18:-0.24569145 19:-1.3923818 20:-0.97736674 21:-0.30979394 
1.192874936507185 0:0.96614293 1:1.957574 2:-0.87758945 3:0.35463385 4:-0.095978287 5:0.2096951 6:0.25686881 7:0.20825854 8:-0.30064862 9:-0.13158447 10:-0.23417472 11:-0.33620681 12:-0.45952076 13:-0.23456122 14:1.6653042 15:-0.7335824 16:-0.42936667 17:-1.2850731 18:-0.95190009 19:-0.096859111 20:-0.61492143 21:-0.93628567 
0.4906588742221922 0:2.0095344 1:0.68657596 2:2.7124856 3:-0.37631295 4:-0.76070423 5:-0.17517029 6:-0.41541099 7:-0.1752537 8:-0.55160845 9:-0.50037222 10:-0.44337048 11:-0.53371471 12:-0.71004283 13:-0.44299456 14:-0.40797624 15:-0.11633741 16:0.27567404 17:-1.2338018 18:-1.4952972 19:-0.57663446 20:-0.73232925 21:-1.2682137 
3.056484572443851 0:0.93916995 1:0.13046913 2:-0.53030947 3:0.5139752 4:-0.095978287 5:0.71720991 6:0.51171998 7:0.71725824 8:-0.37549629 9:-0.45120052 10:-0.21799383 11:-0.38459625 12:-0.57161622 13:-0.21837971 14:-0.31126345 15:-0.6723009 16:-1.2073627 17:0.17065753 18:0.026151215 19:-0.66316711 20:1.3987021 21:0.038849321 
1.171583197273187 0:-0.6310861 1:-0.68026318 2:0.15345399 3:-0.41425136 4:-0.42834126 5:-0.77572947 6:-0.72738397 7:-0.77590154 8:-0.30001965 9:-0.32212481 10:-0.16713961 11:-0.58210415 12:-0.39256441 13:-0.16713824 14:-0.59871535 15:0.66235603 16:-0.34521401 17:0.90493621 18:-1.270066 19:0.074385569 20:-1.065135 21:-0.98527954 
0.6350304291412027 0:-0.95354295 1:-0.9004217 2:-0.39657718 3:-0.63429417 4:-0.42834126 5:-0.63193361 6:-0.5648065 7:-0.63067448 8:-0.81892155 9:-0.79540242 10:-0.83171179 11:-0.74702325 12:-0.79054091 13:-0.83135096 14:-0.59972277 15:1.1188909 16:-1.128272 17:0.91382179 18:-0.17446753 19:-0.29876424 20:-1.3893187 21:-0.24548182 
8 0:-0.91596135 1:-0.83250664 2:-0.14041175 3:-0.67729104 4:-0.42834126 5:-0.6784558 6:-0.58238244 7:-0.67861351 8:-0.79942342 9:-0.77081657 10:-0.75774202 11:-0.71937214 12:-0.80182569 13:-0.75776359 14:-0.62558001 15:0.98549904 16:-0.87479963 17:0.81627745 18:-0.19705849 19:-0.22240336 20:-1.0582049 21:-0.19168414 
0.9993784948819529 0:1.6479159 1:0.35373507 2:-0.040598809 3:-0.91503845 4:-1.0930672 5:-0.77995876 6:-0.8416276 7:-0.78013146 8:-0.64721219 9:-0.66632671 10:-0.60749092 11:-0.49520067 12:-0.72584152 13:-0.60712137 14:-0.61919965 15:0.62667001 16:-1.8651518 17:-0.60692044 18:-1.5047468 19:-2.7510197 20:-0.66909508 21:-1.3254916 
0.6349895497853629 0:-0.89424754 1:3.8355591 2:-0.45486514 3:-0.84169085 4:-0.76070423 5:-0.86877385 6:-0.80647571 7:-0.86895966 8:-0.92710474 9:-0.89374582 10:-0.96693779 11:-0.86157783 12:-0.79355019 13:-0.96735275 14:-0.5318895 15:0.74381859 16:0.33154274 17:-0.92807331 18:-0.57772071 19:-1.2950178 20:-0.57844383 21:-0.74557964 
0.5262651824584245 0:1.9036965 1:0.41072831 2:2.2887778 3:-0.20938392 4:-0.76070423 5:-0.018686557 6:-0.21328765 7:-0.017336894 8:-0.47550284 9:-0.30983188 10:-0.33703893 11:-0.46458695 12:-0.64308648 13:-0.33665889 14:-0.43618413 15:-0.24136152 16:-1.2111542 17:-1.2454641 18:-1.3644767 19:-1.8667745 20:-0.26889443 21:-1.211095 
1.001113215884357 0:0.95754317 1:0.10577274 2:1.7057015 3:-0.98079837 4:-1.0930672 5:-0.87723243 6:-0.86359753 7:-0.87741949 8:-0.9503767 9:-0.93062459 10:-0.95653579 11:-0.82602641 12:-0.93874766 13:-0.95695035 14:-0.72027795 15:2.1594458 16:-0.28435229 17:0.41227012 18:-1.2657104 19:-0.52263566 20:-2.3104413 21:-1.2669882 
5.424823517424591 0:-0.76229439 1:-0.77645072 2:0.01543806 3:-0.19167933 4:-0.095978287 5:-0.64039219 6:-0.5648065 7:-0.64054428 8:-0.7302365 9:-0.73393779 10:-0.70804358 11:-0.87441584 12:-0.57613013 13:-0.70767794 14:-0.47849598 15:0.28580705 16:0.83490267 17:0.32190948 18:-0.65572833 19:0.68070783 20:-0.77378785 21:-0.80686488 
0.1542073357242967 0:1.8364785 1:0.39619982 2:2.4958126 3:-0.75063865 4:-1.0930672 5:-0.62347503 6:-0.75814187 7:-0.62362462 8:-0.96358511 9:-0.89989228 10:-0.89181223 11:-0.90305449 12:-0.99065764 13:-0.89145373 14:-0.58125332 15:0.65915659 16:-1.0828226 17:-1.5940262 18:-1.2173084 19:-0.50766164 20:-1.3896977 21:-1.3247809 
1.056170717842688 0:1.0340832 1:0.58975675 2:-0.80494259 3:0.23828938 4:-0.42834126 5:0.38732528 6:0.28323273 7:0.38591494 8:-0.1257944 9:-0.045533997 10:-0.015732729 11:-0.078459005 12:-0.33162661 13:-0.015340203 14:0.73108549 15:-0.64793597 16:0.13452014 17:-0.57198721 18:-1.1361924 19:-0.72436928 20:-0.13377433 21:-1.0645668 
1.985198834541559 0:0.41142506 1:0.26649284 2:-0.45453731 3:-0.35607913 4:-0.42834126 5:-0.24283893 6:-0.31874331 7:-0.24152236 8:0.82584024 9:0.87643537 10:1.0036632 11:0.82612718 12:0.41091177 13:1.0037101 14:0.16793499 15:-0.61126551 16:-0.45676429 17:-1.0352915 18:-0.75198883 19:-1.224884 20:0.78968441 21:-0.81687688 
1.385032876241171 0:1.4959418 1:0.27023194 2:1.97651 3:-0.84422007 4:-1.0930672 5:-0.71229012 6:-0.82405165 7:-0.71104285 8:-0.71136734 9:-0.72164487 10:-0.69417425 11:-0.54655273 12:-0.75142035 13:-0.69380807 14:-0.64606432 15:0.94882858 16:-1.279796 17:-0.38141297 18:-1.1670994 19:-1.5688246 20:-0.23571944 21:-1.1823825 
0.5679347091539891 0:2.1780308 1:0.57732705 2:1.480199 3:-1.0490875 4:-1.1927761 5:-0.96604752 6:-0.96026521 7:-0.96624769 8:-1.0201926 9:-0.97979629 10:-0.98658601 11:-0.91984266 12:-1.0072086 13:-0.98700173 14:-0.61516995 15:1.1823874 16:1.137931 17:-1.4418606 18:-1.5098642 19:-0.18368201 20:-0.912687 21:-1.3885783 
1.081320243985547 0:1.0659091 1:0.068310436 2:1.7724912 3:-1.0667921 4:-1.1263035 5:-0.95758894 6:-0.99102311 7:-0.95637789 8:-1.1422132 9:-1.0904326 10:-1.1553296 11:-1.0383474 12:-1.1080193 13:-1.1557518 14:-0.7384116 15:2.7186088 16:-1.5240209 17:0.46952479 18:-2.1362873 19:-0.67649201 20:-2.551337 21:-1.9015434 
1.175264941904975 0:-0.88941724 1:3.9449914 2:-0.63010056 3:-0.2624977 4:-0.095978287 5:-0.28090254 6:-0.30116736 7:-0.28100156 8:-0.70067482 9:-0.66632671 10:-0.7484958 11:-0.6808581 12:-0.53249566 13:-0.74851701 14:-0.29111495 15:0.48171096 16:0.70517266 17:-0.86053572 18:-0.64769368 19:-0.81117898 20:-0.55177118 21:-0.96938533 
-0.2384526446583956 0:-0.79922141 1:-0.75046042 2:-0.027791631 3:0.93129777 4:1.2334736 5:0.60301907 6:1.8387036 7:0.60164058 8:1.2120291 9:1.189905 10:0.99441699 11:1.8413178 12:0.7855664 13:0.99484875 14:-0.3498814 15:-0.15325398 16:-0.78052305 17:1.959472 18:1.4759729 19:1.1123684 20:-0.48240552 21:1.9370373 
-0.0692319610892233 0:-0.4011048 1:-0.01323655 2:-0.69321853 3:0.26358166 4:0.23638469 5:0.36194954 6:0.2920207 7:0.36194543 8:1.0723973 9:1.097708 10:1.2937634 11:0.8942674 12:0.76826307 13:1.2938215 14:-0.099368415 15:-0.90955137 16:0.42540569 17:0.46201863 18:0.33475975 19:-0.71939553 20:-0.74532042 21:0.36988273 
-0.1235723005647573 0:-0.29865264 1:-0.43211746 2:-1.0836408 3:0.58479357 4:0.56874766 5:0.62839481 6:0.3842944 7:0.62843004 8:0.4471991 9:0.63057687 10:0.46275924 11:0.24150379 12:0.56438475 13:0.46317035 14:0.11252662 15:-0.42742101 16:-0.05391484 17:0.26329331 18:0.041594549 19:-0.73835382 20:-0.2377768 21:-0.23137678 
-0.1691150220608664 0:-0.69801068 1:-0.62021346 2:0.024660977 3:1.7204168 4:1.8981996 5:1.7872203 6:1.2806675 7:1.7860166 8:0.69941687 9:0.48920824 10:0.77135189 11:0.50616438 12:0.66895703 13:0.77177499 14:1.9769343 15:-1.639761 16:1.3270849 17:-0.021582743 18:1.6922214 19:0.66649901 20:0.82852799 21:1.7268464 
-0.2079712528770769 0:0.47169104 1:0.007527163 2:-0.86797314 3:0.37233845 4:-0.095978287 5:0.41270102 6:0.38868838 7:0.4127044 8:1.2711524 9:1.0608292 10:1.400095 11:1.3435979 12:0.98643544 13:1.4001572 14:1.0766322 15:-1.9953906 16:0.60738028 17:0.24894381 18:0.46080154 19:1.6923575 20:1.9857304 21:0.51971968 
-1.015863619130652 0:-0.1287116 1:-0.51157584 2:-0.86786386 3:-0.88974617 4:-0.76070423 5:-0.91106675 6:-0.85920354 7:-0.9112588 8:-1.033401 9:-0.95521044 10:-1.0929176 11:-0.98995796 12:-0.89511319 13:-1.0925669 14:-0.59401403 15:1.1710663 16:-1.9492651 17:0.11942212 18:-1.0817666 19:-1.656096 20:-0.97916423 21:-1.0510377 
-0.05670566149111954 0:-0.20574823 1:0.039528548 2:-0.7282525 3:-0.2624977 4:-0.42834126 5:-0.2978197 6:-0.24843954 7:-0.29933119 8:-0.53777107 9:-0.39588236 10:-0.6756818 11:-0.51100131 12:-0.28046895 13:-0.67531491 14:-0.31428572 15:0.76744519 16:-1.3398108 17:0.19638273 18:-0.49297016 19:-0.24662564 20:-0.13955932 21:-0.44986398 
-4.712735278598118 0:-0.80992031 1:-0.79661333 2:-0.20525629 3:-0.83410316 4:-0.76070423 5:-0.86454456 6:-0.86359753 7:-0.86331977 8:-1.101959 9:-1.0597003 10:-1.1460833 11:-1.0600733 12:-0.97485895 13:-1.14612 14:-0.5967005 15:1.0750832 16:-0.03421849 17:0.0564169 18:-0.12454576 19:-0.24828796 20:-0.69541581 21:-0.19775017 
-0.1180173097397367 0:-0.44245584 1:-0.28757634 2:-1.0776524 3:0.93888545 4:0.90111063 5:0.90329867 6:0.64353955 7:0.9019645 8:1.3862543 9:1.3558594 10:1.4809994 11:0.79452591 12:1.1564594 13:1.4810648 14:0.36841254 15:-0.8443321 16:0.4774336 17:0.31426 18:0.53934001 19:0.13267209 20:0.74853713 21:0.53028314 
-0.3403786161335511 0:1.176487 1:0.49892824 2:-0.50827938 3:0.39763073 4:-0.095978287 5:0.45499392 6:0.42384027 7:0.45641352 8:2.4850684 9:1.8967481 10:2.9453698 11:2.3123741 12:1.7041473 13:2.9451067 14:0.66291641 15:-1.5634668 16:1.0983118 17:-0.89115157 18:0.34296132 19:0.97787936 20:0.81041236 21:0.3923209 
-0.3206979733923479 0:-0.68096918 1:-0.65474154 2:-0.41202884 3:1.9682811 4:2.2305625 5:2.1382513 6:1.421275 7:2.1385095 8:1.2044814 9:0.98092523 10:1.2417534 11:0.95648239 12:1.2858582 13:1.2414242 14:2.7063099 15:-1.6163806 16:0.75033639 17:-0.44423905 18:0.58671523 19:-0.16688737 20:0.20532801 21:0.74343959 
-0.1960717748147844 0:0.40530817 1:-0.12313752 2:-0.63114961 3:-0.31308226 4:-0.42834126 5:-0.42046911 6:-0.32313729 7:-0.42058873 8:0.89188231 9:0.62443041 10:0.83145233 11:0.79847607 12:1.1835429 13:0.83187776 14:-0.14235188 15:-0.38853556 16:0.41799987 17:-0.51586114 18:0.49975294 19:-0.059588986 20:0.49199464 21:0.65987549 
-0.02580226642225959 0:-0.80590258 1:-0.81012299 2:-0.22479489 3:-0.48759897 4:-0.42834126 5:-0.40778124 6:-0.55601853 7:-0.40930896 8:-0.79124678 9:-0.7646701 10:-0.86291779 11:-0.8359018 12:-0.66866531 13:-0.86255817 14:-0.41939372 15:0.98845236 16:-0.25800842 17:0.34836917 18:-0.33864066 19:0.029252437 20:0.43848693 21:-0.35631239 
-0.3200641317762889 0:-1.2118064 1:-0.63158358 2:-0.63722537 3:0.77701488 4:1.5658366 5:0.72989778 6:0.56884179 7:0.73135795 8:0.02515888 9:0.058955864 10:0.12873948 11:-0.10709765 12:-0.094646276 13:0.12836707 14:0.54336866 15:-0.87460368 16:1.738778 17:-0.7367825 18:2.7506939 19:2.4004635 20:0.52695359 21:2.0529412 
-3.150121805974258 0:-0.98886739 1:-0.74529497 2:-0.38315805 3:-0.20432547 4:0.23638469 5:-0.12441881 6:-0.20889366 7:-0.12449473 8:-0.6402935 9:-0.66018024 10:-0.57859648 11:-0.62061819 12:-0.62879243 13:-0.57822581 14:-0.27835424 15:-0.19238554 16:0.61280662 17:-0.76322427 18:0.14227659 19:-0.39446601 20:-1.336994 21:0.15535377 
-0.5320642850176275 0:0.95151658 1:0.28810218 2:1.2986256 3:5.3473293 4:3.2276515 5:5.2763845 6:6.008596 7:5.2785159 8:3.7172246 9:4.6442169 10:3.2551182 11:3.846023 12:4.6035829 13:3.2548672 14:4.7016828 15:-3.0891054 16:0.87987928 17:0.69435151 18:2.8376717 19:1.8658582 20:2.2150886 21:3.1250713 
-0.5288454077350211 0:1.0534496 1:3.6771415 2:1.3593832 3:2.5980588 4:1.2334736 5:2.5315753 6:2.7746226 7:2.5304815 8:2.7649609 9:3.5071213 10:2.3663251 11:2.5711095 12:3.2057751 13:2.3668102 14:1.8889525 15:-1.7256536 16:-0.66172452 17:1.0751954 18:0.84551845 19:0.62647156 20:1.4738582 21:0.86351012 
-0.0877987604273323 0:0.56468573 1:-0.047846134 2:0.88374728 3:-0.4901282 4:-0.76070423 5:-0.4246984 6:-0.38465309 7:-0.42622862 8:0.67803182 9:0.42159715 10:0.73899012 11:0.82118948 12:0.51021782 13:0.73902668 14:0.17397954 15:-1.4335205 16:0.87406886 17:0.21599908 18:0.10270504 19:1.3339047 20:1.9829015 21:0.0087520326 
-0.7626312791417112 0:-0.89858128 1:-0.74466329 2:-0.1146007 3:-0.55335889 4:-0.42834126 5:-0.58964071 6:-0.43738092 7:-0.59119528 8:0.15850095 9:0.028223552 10:0.053613933 11:0.14867508 12:0.42971974 13:0.054009153 14:-0.14671738 15:-0.78748059 16:1.2801781 17:-0.35185408 18:-0.099600402 19:0.24109187 20:0.21624828 21:-0.18043442 
-2.107860208932505 0:1.0573545 1:0.27189263 2:-0.63001314 3:-0.58118039 4:-0.76070423 5:-0.55580639 6:-0.52965462 7:-0.55453602 8:-0.48871125 9:-0.50651868 10:-0.40522982 11:-0.4784125 12:-0.52121088 13:-0.40562297 14:-0.085264467 15:-0.81553718 16:0.40655629 17:-1.4879545 18:-0.13096261 19:-0.019033813 20:0.28419544 21:-0.13084007 
-1.02565120851844 0:-0.60989143 1:2.8005114 2:-0.58588738 3:-0.047513349 4:0.23638469 5:-0.33588331 6:-0.077074095 7:-0.33599044 8:-0.48179256 9:-0.25451372 10:-0.71497825 11:-0.53766487 12:-0.34968226 13:-0.71461288 14:0.028910353 15:0.67490766 16:-0.06956359 17:-0.56537676 18:-0.40993349 19:0.85935377 20:0.86755023 21:-0.57940731 
-1.785451147580317 0:-1.290107 1:-1.0444636 2:-0.59565668 3:-0.42436828 4:-0.095978287 5:-0.31050757 6:-0.32313729 7:-0.30920099 8:-0.34656358 9:-0.37129651 10:-0.22030538 11:-0.31448095 12:-0.48660423 13:-0.22030608 14:-0.46405622 15:0.059877666 16:0.80582101 17:1.016221 18:-0.25391729 19:-1.8020762 20:-0.84504033 21:-0.27491736 
-0.4007902762472694 0:0.58816012 1:-0.077921934 2:-0.7839834 3:0.61261508 4:0.23638469 5:0.78487855 6:0.51611397 7:0.7835269 8:-0.17045141 9:-0.1930491 10:-0.1105065 11:-0.080434084 12:-0.20147551 13:-0.1108882 14:-0.1514187 15:-0.79166446 16:0.93691991 17:0.30836614 18:0.30918455 19:-0.95424349 20:-0.51828487 21:0.19422535 
-0.1991306213565288 0:0.45866727 1:0.2298456 2:0.23060303 3:-0.20179624 4:-0.42834126 5:-0.14133597 6:-0.085862066 7:-0.14000441 8:2.3504684 9:1.9520663 10:2.5466265 11:2.4664303 12:1.8689051 13:2.546348 14:0.85970007 15:-1.9882534 16:1.0641386 17:0.45049962 18:0.24131753 19:1.118147 20:2.0865656 21:0.26052271 
-0.5064602249607516 0:-0.6646951 1:-0.6425258 2:-0.33413672 3:3.3795902 4:3.5600144 5:3.5466049 6:2.8932602 7:3.545661 8:2.4907291 9:2.4376368 10:2.4772798 11:2.2728725 12:2.6964554 13:2.4773839 14:4.8625349 15:-2.3542197 16:1.4154329 17:-0.72977794 18:1.9442506 19:0.37026418 20:0.72784708 21:2.1908054 
-0.4693447610421858 0:-0.901651 1:-0.64227109 2:-0.096242285 3:1.7305337 4:2.2305625 5:1.4150428 6:2.5329534 7:1.4166041 8:2.2963768 9:1.9766522 10:2.3374307 11:3.1241316 12:1.7048996 13:2.3375293 14:-0.16686588 15:-0.57877893 16:-0.76287512 17:1.9310776 18:1.9564409 19:0.26012932 20:-0.090910775 21:2.5811388 
-2.090634168532474 0:0.1491439 1:-0.065971082 2:-0.81801203 3:-0.24732234 4:-0.42834126 5:-0.170941 6:-0.34510722 7:-0.16961381 8:-0.61827948 9:-0.58027623 10:-0.7797018 11:-0.59691724 12:-0.30078155 13:-0.77933894 14:-0.36734343 15:0.90502092 16:-0.6601685 17:0.14523689 18:-0.8462647 19:-0.06503768 20:-1.1039434 21:-0.79001481 
-0.1594636808288018 0:-1.3594919 1:-0.74122984 2:-0.50932843 3:-0.12339018 4:0.56874766 5:-0.11596023 6:0.0020176465 7:-0.11462493 8:-0.42832994 9:-0.43890759 10:-0.45608404 11:-0.37965855 12:-0.36247167 13:-0.45647916 14:-0.40092426 15:-0.046442045 16:1.188984 17:1.0371988 18:0.2572267 19:1.4904524 20:-0.11708532 21:0.3904582 
-1.252817289585775 0:1.1863282 1:0.15785522 2:1.8349972 3:0.023305027 4:-0.42834126 5:0.20123652 6:0.032775546 7:0.20261865 8:-0.63714864 9:-0.66018024 10:-0.59593314 11:-0.5959297 12:-0.67092227 13:-0.5963337 14:-0.48151825 15:0.099993668 16:-1.5434316 17:-0.057752077 18:-0.686812 19:-0.40129996 20:0.36971141 21:-0.77594653 
-0.4388638263986869 0:-0.8576591 1:-0.71941674 2:-0.31256558 3:3.0684952 4:3.5600144 5:3.3689747 6:1.6980961 7:3.3694146 8:1.3447422 9:1.0792686 10:1.3203463 11:0.49332636 12:0.53955824 13:1.3204054 14:2.8490284 15:-0.72004633 16:1.3366672 17:-1.2343751 18:2.2507978 19:1.1664992 20:1.6210003 21:0.75483636 
-1.592290057691786 0:0.54707994 1:-0.036394508 2:1.32 3:-0.79869397 4:-0.76070423 5:-0.70806083 6:-0.72738397 7:-0.70822291 8:-0.83653277 9:-0.80769534 10:-0.8571389 11:-0.76677404 12:-0.75894353 13:-0.8575496 14:-0.68266742 15:1.165898 16:-0.89554974 17:0.90502579 18:-0.66801467 19:-0.033005163 20:-0.2608653 21:-0.70806832 
-0.1673428305358732 0:-0.67300143 1:-0.51488704 2:-0.38280837 3:0.94900236 4:1.2334736 5:1.1528268 6:0.5380839 7:1.1515294 8:0.049059817 9:0.02207709 10:0.037433045 11:-0.079446545 12:-0.03145152 13:0.037057088 14:0.52523501 15:-0.11486075 16:1.3806688 17:-1.5827938 18:0.67315927 19:0.86143826 20:1.4253666 21:0.61265854 
-0.5065576237059078 0:-0.092281158 1:2.9349458 2:-1.0047652 3:0.64802427 4:0.56874766 5:0.35349096 6:0.23489889 7:0.35207563 8:-0.58557294 9:-0.16846325 10:-0.77623446 11:-0.81911363 12:-0.69800573 13:-0.77587147 14:1.2717368 15:0.4164917 16:-0.85795926 17:-0.94985732 18:1.0583013 19:0.61681431 20:0.91117447 21:0.91539608 
-1.640011149009166 0:-0.1415548 1:-0.45290155 2:0.40540135 3:-0.86698312 4:-0.76070423 5:-0.86454456 6:-0.86799151 7:-0.86331977 8:-0.89817203 9:-0.83842765 10:-0.93342023 11:-0.83293918 12:-0.85749726 13:-0.9338339 14:-0.56614194 15:1.3339914 16:-1.2736803 17:0.076749834 18:-1.197264 19:-0.059588986 20:-1.0053361 21:-1.0640766 
-1.530410424499067 0:0.07122699 1:-0.3658427 2:0.65024575 3:-0.65199877 4:-0.76070423 5:-0.60232858 6:-0.64829223 7:-0.60106508 8:0.38178601 9:0.27408205 10:0.39110103 11:0.35803345 12:0.45906016 13:0.3907388 14:-0.47413047 15:0.16299794 16:-1.265398 17:-0.39879002 18:-0.63441841 19:-0.26608527 20:0.29094414 21:-0.58821837 
-0.3449701177271433 0:0.24026516 1:0.012091512 2:-0.80922622 3:0.35969231 4:-0.095978287 5:0.28159303 6:0.53368991 7:0.28157706 8:2.4316058 9:2.2839753 10:2.5223551 11:2.5878976 12:2.1931544 13:2.5220757 14:2.1696882 15:-2.524282 16:1.561826 17:0.31305973 18:1.2177103 19:2.3013316 20:2.5766406 21:1.2529489 
-0.5831847711984082 0:0.83671779 1:0.041556015 2:-0.75972407 3:0.42039377 4:-0.095978287 5:0.5480383 6:0.25247483 7:0.54947163 8:0.16982244 9:0.077395252 10:0.35064881 11:0.1516377 12:-0.086370773 13:0.35028501 14:-0.44222868 15:-0.016416571 16:0.02692883 17:0.4451611 18:-0.078969823 19:0.84280979 20:0.65777759 21:-0.17206454 
-4.529023568724809 0:-0.83996302 1:-0.82625103 2:-0.11414174 3:-0.67982027 4:-0.42834126 5:-0.64462148 6:-0.70541404 7:-0.6447742 8:-1.0887505 9:-1.0043821 10:-1.1299024 11:-1.0274845 12:-0.97485895 13:-1.1295532 14:-0.59099176 15:0.89050041 16:-0.12333463 17:0.13267884 18:-0.66420649 19:-0.47603811 20:-0.89586263 21:-0.7142814 
-1.808084836151868 0:-1.019497 1:-0.78164675 2:-0.16921698 3:-0.26755616 4:-0.095978287 5:-0.2555268 6:-0.21328765 7:-0.25562207 8:-0.20881871 9:-0.28524603 10:-0.041159839 11:-0.33225666 12:-0.27670736 13:-0.041538849 14:-0.59938696 15:0.84595442 16:-0.56911228 17:1.7953575 18:0.43707511 19:-0.17064736 20:-0.37884701 21:0.54904493 
-1.32941087040954 0:1.1368514 1:0.21939243 2:-0.50351493 3:-0.26502693 4:-0.76070423 5:-0.077896617 6:-0.37586512 7:-0.079375638 8:-0.42078227 9:-0.32827127 10:-0.4167876 11:-0.37274578 12:-0.44748366 13:-0.41718119 14:-0.40831205 15:-0.033644302 16:-1.6083213 17:-0.010189134 18:-0.9374748 19:-0.43661753 20:1.5493878 21:-1.0317612 
-1.907372958620155 0:-1.0214381 1:-0.8375804 2:-0.21968076 3:-0.21191315 4:0.23638469 5:-0.18362887 6:-0.18692374 7:-0.18371353 8:-0.35159535 9:-0.34671066 10:-0.21221494 11:-0.43693584 12:-0.36397631 13:-0.21260059 14:-0.60173762 15:0.7866418 16:-0.30830305 17:1.6396628 18:0.27769036 19:1.3229677 20:-1.3634663 21:0.3543439 
-0.02871288450652345 0:-0.83298842 1:-0.8110705 2:-0.61770863 3:-0.64188186 4:-0.42834126 5:-0.64039219 6:-0.70980803 7:-0.63913431 8:-0.98937297 9:-0.9613569 10:-0.96462623 11:-0.9484813 12:-0.96583113 13:-0.96504111 14:-0.45700425 15:0.34167412 16:-0.23485536 17:0.10064775 18:0.31792377 19:0.52921302 20:0.40756691 21:0.39827663 
